<?xml version="1.0"?>
<opencv_storage>
<cascade>
  <stageType>BOOST</stageType>
  <featureType>HAAR</featureType>
  <height>20</height>
  <width>20</width>
  <stageParams>
    <boostType>GAB</boostType>
    <minHitRate>9.9500000476837158e-01</minHitRate>
    <maxFalseAlarm>5.0000000000000000e-01</maxFalseAlarm>
    <weightTrimRate>9.4999999999999996e-01</weightTrimRate>
    <maxDepth>1</maxDepth>
    <maxWeakCount>100</maxWeakCount></stageParams>
  <featureParams>
    <maxCatCount>0</maxCatCount>
    <featSize>1</featSize>
    <mode>BASIC</mode></featureParams>
  <stageNum>18</stageNum>
  <stages>
    <!-- stage 0 -->
    <_>
      <maxWeakCount>3</maxWeakCount>
      <stageThreshold>-1.1692651510238647e+00</stageThreshold>
      <weakClassifiers>
        <_>
          <internalNodes>
            0 -1 8 1.6512919962406158e-01</internalNodes>
          <leafValues>
            -9.1943126916885376e-01 9.0301722288131714e-01</leafValues></_>
        <_>
          <internalNodes>
            0 -1 44 1.5534956753253937e-01</internalNodes>
          <leafValues>
            -7.4659061431884766e-01 8.2134646177291870e-01</leafValues></_>
        <_>
          <internalNodes>
            0 -1 72 6.5089231356978416e-03</internalNodes>
          <leafValues>
            -9.2288982868194580e-01 4.9675673246383667e-01</leafValues></_></weakClassifiers></_>
    <!-- stage 1 -->
    <_>
      <maxWeakCount>4</maxWeakCount>
      <stageThreshold>-6.7315244674682617e-01</stageThreshold>
      <weakClassifiers>
        <_>
          <internalNodes>
            0 -1 7 1.7308658361434937e-01</internalNodes>
          <leafValues>
            -8.2704019546508789e-01 8.4034061431884766e-01</leafValues></_>
        <_>
          <internalNodes>
            0 -1 43 2.1224346756935120e-01</internalNodes>
          <leafValues>
            -6.6455757617950439e-01 6.9955337047576904e-01</leafValues></_>
        <_>
          <internalNodes>
            0 -1 36 1.1581943836063147e-03</internalNodes>
          <leafValues>
            -8.5108727216720581e-01 4.6336451172828674e-01</leafValues></_>
        <_>
          <internalNodes>
            0 -1 87 4.3474504491314292e-04</internalNodes>
          <leafValues>
            -9.7619873285293579e-01 3.5508081316947937e-01</leafValues></_></weakClassifiers></_>
    <!-- stage 2 -->
    <_>
      <maxWeakCount>6</maxWeakCount>
      <stageThreshold>-1.2766246795654297e+00</stageThreshold>
      <weakClassifiers>
        <_>
          <internalNodes>
            0 -1 6 2.5355041027069092e-01</internalNodes>
          <leafValues>
            -6.0285377502441406e-01 7.5685852766036987e-01</leafValues></_>
        <_>
          <internalNodes>
            0 -1 37 -7.1459434926509857e-02</internalNodes>
          <leafValues>
            5.3500205278396606e-01 -7.4535447359085083e-01</leafValues></_>
        <_>
          <internalNodes>
            0 -1 29 9.4487791648134589e-04</internalNodes>
          <leafValues>
            -7.7147662639617920e-01 3.4732177853584290e-01</leafValues></_>
        <_>
          <internalNodes>
            0 -1 78 1.0859640315175056e-04</internalNodes>
          <leafValues>
            -9.3128430843353271e-01 2.7475768327713013e-01</leafValues></_>
        <_>
          <internalNodes>
            0 -1 16 5.6750876829028130e-03</internalNodes>
          <leafValues>
            -7.6631551980972290e-01 3.0796694755554199e-01</leafValues></_>
        <_>
          <internalNodes>
            0 -1 92 4.0320740081369877e-03</internalNodes>
          <leafValues>
            2.1581964194774628e-01 -9.2730009555816650e-01</leafValues></_></weakClassifiers></_>
    <!-- stage 3 -->
    <_>
      <maxWeakCount>5</maxWeakCount>
      <stageThreshold>-4.6615073084831238e-01</stageThreshold>
      <weakClassifiers>
        <_>
          <internalNodes>
            0 -1 139 -1.4415029436349869e-02</internalNodes>
          <leafValues>
            6.9493228197097778e-01 -6.8599718809127808e-01</leafValues></_>
        <_>
          <internalNodes>
            0 -1 20 2.1301463712006807e-03</internalNodes>
          <leafValues>
            -7.3595267534255981e-01 5.0565183162689209e-01</leafValues></_>
        <_>
          <internalNodes>
            0 -1 55 2.1550939418375492e-03</internalNodes>
          <leafValues>
            -9.2518115043640137e-01 3.1324496865272522e-01</leafValues></_>
        <_>
          <internalNodes>
            0 -1 71 2.2118899971246719e-02</internalNodes>
          <leafValues>
            -6.7638540267944336e-01 3.5007378458976746e-01</leafValues></_>
        <_>
          <internalNodes>
            0 -1 90 4.6771960332989693e-03</internalNodes>
          <leafValues>
            -8.5887306928634644e-01 2.9248034954071045e-01</leafValues></_></weakClassifiers></_>
    <!-- stage 4 -->
    <_>
      <maxWeakCount>3</maxWeakCount>
      <stageThreshold>5.5308774113655090e-02</stageThreshold>
      <weakClassifiers>
        <_>
          <internalNodes>
            0 -1 77 1.7657198477536440e-03</internalNodes>
          <leafValues>
            -9.8053526878356934e-01 5.6924420595169067e-01</leafValues></_>
        <_>
          <internalNodes>
            0 -1 27 2.2778152488172054e-03</internalNodes>
          <leafValues>
            3.7160789966583252e-01 -7.7476191520690918e-01</leafValues></_>
        <_>
          <internalNodes>
            0 -1 60 6.0557345859706402e-03</internalNodes>
          <leafValues>
            -8.8554334640502930e-01 3.0069687962532043e-01</leafValues></_></weakClassifiers></_>
    <!-- stage 5 -->
    <_>
      <maxWeakCount>5</maxWeakCount>
      <stageThreshold>-6.5646493434906006e-01</stageThreshold>
      <weakClassifiers>
        <_>
          <internalNodes>
            0 -1 66 1.3726025354117155e-03</internalNodes>
          <leafValues>
            -7.6190477609634399e-01 5.8469945192337036e-01</leafValues></_>
        <_>
          <internalNodes>
            0 -1 82 2.4050451815128326e-02</internalNodes>
          <leafValues>
            -8.4931135177612305e-01 3.6285471916198730e-01</leafValues></_>
        <_>
          <internalNodes>
            0 -1 47 2.2040596231818199e-03</internalNodes>
          <leafValues>
            -7.8800499439239502e-01 3.5578516125679016e-01</leafValues></_>
        <_>
          <internalNodes>
            0 -1 83 4.7944695688784122e-04</internalNodes>
          <leafValues>
            -8.2029920816421509e-01 2.5712668895721436e-01</leafValues></_>
        <_>
          <internalNodes>
            0 -1 79 1.8200511112809181e-03</internalNodes>
          <leafValues>
            2.0709918439388275e-01 -9.4658780097961426e-01</leafValues></_></weakClassifiers></_>
    <!-- stage 6 -->
    <_>
      <maxWeakCount>4</maxWeakCount>
      <stageThreshold>-7.9472696781158447e-01</stageThreshold>
      <weakClassifiers>
        <_>
          <internalNodes>
            0 -1 38 1.0249915067106485e-03</internalNodes>
          <leafValues>
            -6.9287019968032837e-01 5.9405481815338135e-01</leafValues></_>
        <_>
          <internalNodes>
            0 -1 138 1.3934805989265442e-02</internalNodes>
          <leafValues>
            -7.5498396158218384e-01 3.7077277898788452e-01</leafValues></_>
        <_>
          <internalNodes>
            0 -1 109 -1.4849291183054447e-03</internalNodes>
          <leafValues>
            2.8221315145492554e-01 -9.6319073438644409e-01</leafValues></_>
        <_>
          <internalNodes>
            0 -1 56 -2.3610130883753300e-03</internalNodes>
          <leafValues>
            -9.1601097583770752e-01 1.4084622263908386e-01</leafValues></_></weakClassifiers></_>
    <!-- stage 7 -->
    <_>
      <maxWeakCount>8</maxWeakCount>
      <stageThreshold>-7.7896851301193237e-01</stageThreshold>
      <weakClassifiers>
        <_>
          <internalNodes>
            0 -1 142 1.5303306281566620e-02</internalNodes>
          <leafValues>
            -3.7677726149559021e-01 6.5625000000000000e-01</leafValues></_>
        <_>
          <internalNodes>
            0 -1 76 3.3191167749464512e-03</internalNodes>
          <leafValues>
            3.0820715427398682e-01 -8.6280941963195801e-01</leafValues></_>
        <_>
          <internalNodes>
            0 -1 88 2.1195083390921354e-03</internalNodes>
          <leafValues>
            -8.1134927272796631e-01 2.5882300734519958e-01</leafValues></_>
        <_>
          <internalNodes>
            0 -1 12 2.2844586521387100e-02</internalNodes>
          <leafValues>
            -5.7496529817581177e-01 3.0252894759178162e-01</leafValues></_>
        <_>
          <internalNodes>
            0 -1 112 4.6540447510778904e-03</internalNodes>
          <leafValues>
            -6.6925185918807983e-01 3.1247803568840027e-01</leafValues></_>
        <_>
          <internalNodes>
            0 -1 54 3.4105023951269686e-04</internalNodes>
          <leafValues>
            -8.0636680126190186e-01 2.0040966570377350e-01</leafValues></_>
        <_>
          <internalNodes>
            0 -1 23 4.9332100898027420e-03</internalNodes>
          <leafValues>
            1.6927313804626465e-01 -8.7035673856735229e-01</leafValues></_>
        <_>
          <internalNodes>
            0 -1 80 1.4365441165864468e-03</internalNodes>
          <leafValues>
            -8.8831853866577148e-01 1.2303756922483444e-01</leafValues></_></weakClassifiers></_>
    <!-- stage 8 -->
    <_>
      <maxWeakCount>8</maxWeakCount>
      <stageThreshold>-7.5663852691650391e-01</stageThreshold>
      <weakClassifiers>
        <_>
          <internalNodes>
            0 -1 104 1.6683991998434067e-02</internalNodes>
          <leafValues>
            -7.1428573131561279e-01 5.6561088562011719e-01</leafValues></_>
        <_>
          <internalNodes>
            0 -1 22 1.3518370687961578e-03</internalNodes>
          <leafValues>
            -6.5415185689926147e-01 3.9229118824005127e-01</leafValues></_>
        <_>
          <internalNodes>
            0 -1 69 6.6393245942890644e-03</internalNodes>
          <leafValues>
            -5.4732817411422729e-01 4.3598520755767822e-01</leafValues></_>
        <_>
          <internalNodes>
            0 -1 63 6.1768060550093651e-04</internalNodes>
          <leafValues>
            -9.0225839614868164e-01 1.8585903942584991e-01</leafValues></_>
        <_>
          <internalNodes>
            0 -1 52 3.9726458489894867e-03</internalNodes>
          <leafValues>
            1.9250258803367615e-01 -8.5946071147918701e-01</leafValues></_>
        <_>
          <internalNodes>
            0 -1 57 -4.2311716824769974e-03</internalNodes>
          <leafValues>
            -8.2906627655029297e-01 1.5637810528278351e-01</leafValues></_>
        <_>
          <internalNodes>
            0 -1 129 2.5079376064240932e-03</internalNodes>
          <leafValues>
            -5.2212947607040405e-01 3.0087545514106750e-01</leafValues></_>
        <_>
          <internalNodes>
            0 -1 86 3.4527874086052179e-03</internalNodes>
          <leafValues>
            -7.9568612575531006e-01 2.0487798750400543e-01</leafValues></_></weakClassifiers></_>
    <!-- stage 9 -->
    <_>
      <maxWeakCount>8</maxWeakCount>
      <stageThreshold>-8.3826583623886108e-01</stageThreshold>
      <weakClassifiers>
        <_>
          <internalNodes>
            0 -1 50 2.6773898862302303e-03</internalNodes>
          <leafValues>
            -6.6125291585922241e-01 5.2225649356842041e-01</leafValues></_>
        <_>
          <internalNodes>
            0 -1 113 -9.8822661675512791e-04</internalNodes>
          <leafValues>
            -5.1311224699020386e-01 3.8080891966819763e-01</leafValues></_>
        <_>
          <internalNodes>
            0 -1 62 2.5371033189003356e-05</internalNodes>
          <leafValues>
            -6.1754840612411499e-01 3.3279204368591309e-01</leafValues></_>
        <_>
          <internalNodes>
            0 -1 98 3.2442540396004915e-04</internalNodes>
          <leafValues>
            -7.3936027288436890e-01 2.3349623382091522e-01</leafValues></_>
        <_>
          <internalNodes>
            0 -1 111 7.2197313420474529e-04</internalNodes>
          <leafValues>
            1.6712187230587006e-01 -8.2344734668731689e-01</leafValues></_>
        <_>
          <internalNodes>
            0 -1 58 1.8964053597301245e-03</internalNodes>
          <leafValues>
            -8.9930969476699829e-01 1.2057938426733017e-01</leafValues></_>
        <_>
          <internalNodes>
            0 -1 32 1.4032563194632530e-03</internalNodes>
          <leafValues>
            -7.0618396997451782e-01 2.0086969435214996e-01</leafValues></_>
        <_>
          <internalNodes>
            0 -1 102 5.4664193885400891e-04</internalNodes>
          <leafValues>
            -7.1550291776657104e-01 1.8829369544982910e-01</leafValues></_></weakClassifiers></_>
    <!-- stage 10 -->
    <_>
      <maxWeakCount>8</maxWeakCount>
      <stageThreshold>-7.4864774942398071e-01</stageThreshold>
      <weakClassifiers>
        <_>
          <internalNodes>
            0 -1 81 4.9205524846911430e-03</internalNodes>
          <leafValues>
            4.8585689067840576e-01 -9.0540540218353271e-01</leafValues></_>
        <_>
          <internalNodes>
            0 -1 133 6.0652880929410458e-03</internalNodes>
          <leafValues>
            -3.8645663857460022e-01 5.2383917570114136e-01</leafValues></_>
        <_>
          <internalNodes>
            0 -1 101 -8.7305274792015553e-04</internalNodes>
          <leafValues>
            2.5043311715126038e-01 -8.3918327093124390e-01</leafValues></_>
        <_>
          <internalNodes>
            0 -1 45 9.4780875369906425e-03</internalNodes>
          <leafValues>
            -5.5480861663818359e-01 2.7478387951850891e-01</leafValues></_>
        <_>
          <internalNodes>
            0 -1 67 2.6972221676260233e-03</internalNodes>
          <leafValues>
            -8.2301568984985352e-01 1.9985878467559814e-01</leafValues></_>
        <_>
          <internalNodes>
            0 -1 130 4.1750334203243256e-03</internalNodes>
          <leafValues>
            -5.3401327133178711e-01 2.6563706994056702e-01</leafValues></_>
        <_>
          <internalNodes>
            0 -1 21 1.3569938018918037e-03</internalNodes>
          <leafValues>
            -6.4468997716903687e-01 2.1771073341369629e-01</leafValues></_>
        <_>
          <internalNodes>
            0 -1 61 2.6023811660706997e-03</internalNodes>
          <leafValues>
            -7.5147640705108643e-01 1.6438320279121399e-01</leafValues></_></weakClassifiers></_>
    <!-- stage 11 -->
    <_>
      <maxWeakCount>11</maxWeakCount>
      <stageThreshold>-8.1257271766662598e-01</stageThreshold>
      <weakClassifiers>
        <_>
          <internalNodes>
            0 -1 93 3.9782794192433357e-03</internalNodes>
          <leafValues>
            -5.0100600719451904e-01 5.2156150341033936e-01</leafValues></_>
        <_>
          <internalNodes>
            0 -1 17 1.2959511950612068e-03</internalNodes>
          <leafValues>
            -5.5782061815261841e-01 3.6029377579689026e-01</leafValues></_>
        <_>
          <internalNodes>
            0 -1 131 1.1287956731393933e-03</internalNodes>
          <leafValues>
            2.8649613261222839e-01 -5.7951706647872925e-01</leafValues></_>
        <_>
          <internalNodes>
            0 -1 40 2.9167814645916224e-03</internalNodes>
          <leafValues>
            -7.4981224536895752e-01 1.4304621517658234e-01</leafValues></_>
        <_>
          <internalNodes>
            0 -1 144 2.9874307801946998e-04</internalNodes>
          <leafValues>
            -3.2756945490837097e-01 3.9626380801200867e-01</leafValues></_>
        <_>
          <internalNodes>
            0 -1 99 -8.3950385451316833e-03</internalNodes>
          <leafValues>
            -8.4459471702575684e-01 1.5967239439487457e-01</leafValues></_>
        <_>
          <internalNodes>
            0 -1 108 -2.5329960044473410e-04</internalNodes>
          <leafValues>
            1.4959627389907837e-01 -6.7677956819534302e-01</leafValues></_>
        <_>
          <internalNodes>
            0 -1 117 1.8360563553869724e-03</internalNodes>
          <leafValues>
            1.2748850882053375e-01 -8.4021520614624023e-01</leafValues></_>
        <_>
          <internalNodes>
            0 -1 73 -1.5436647459864616e-02</internalNodes>
          <leafValues>
            -8.1654804944992065e-01 1.1979048699140549e-01</leafValues></_>
        <_>
          <internalNodes>
            0 -1 68 -3.4657713025808334e-02</internalNodes>
          <leafValues>
            5.5591160058975220e-01 -2.2571510076522827e-01</leafValues></_>
        <_>
          <internalNodes>
            0 -1 107 -2.9232824454084039e-04</internalNodes>
          <leafValues>
            -9.0098512172698975e-01 1.2340494990348816e-01</leafValues></_></weakClassifiers></_>
    <!-- stage 12 -->
    <_>
      <maxWeakCount>13</maxWeakCount>
      <stageThreshold>-9.3434208631515503e-01</stageThreshold>
      <weakClassifiers>
        <_>
          <internalNodes>
            0 -1 28 3.3583033364266157e-03</internalNodes>
          <leafValues>
            4.7613012790679932e-01 -6.8168169260025024e-01</leafValues></_>
        <_>
          <internalNodes>
            0 -1 126 4.8938822001218796e-03</internalNodes>
          <leafValues>
            -5.9141331911087036e-01 2.9950749874114990e-01</leafValues></_>
        <_>
          <internalNodes>
            0 -1 123 -2.4628853425383568e-03</internalNodes>
          <leafValues>
            1.6709706187248230e-01 -8.3781361579895020e-01</leafValues></_>
        <_>
          <internalNodes>
            0 -1 51 -3.6182655021548271e-03</internalNodes>
          <leafValues>
            -9.0446937084197998e-01 1.3381513953208923e-01</leafValues></_>
        <_>
          <internalNodes>
            0 -1 78 6.4513093093410134e-05</internalNodes>
          <leafValues>
            -9.5317876338958740e-01 6.9479398429393768e-02</leafValues></_>
        <_>
          <internalNodes>
            0 -1 42 -4.8056133091449738e-02</internalNodes>
          <leafValues>
            6.7257791757583618e-01 -2.2342482209205627e-01</leafValues></_>
        <_>
          <internalNodes>
            0 -1 13 3.5417187027633190e-03</internalNodes>
          <leafValues>
            -3.3102223277091980e-01 3.5189214348793030e-01</leafValues></_>
        <_>
          <internalNodes>
            0 -1 140 4.3283659033477306e-03</internalNodes>
          <leafValues>
            -2.3556481301784515e-01 5.4277801513671875e-01</leafValues></_>
        <_>
          <internalNodes>
            0 -1 135 -1.6647726297378540e-03</internalNodes>
          <leafValues>
            1.7105975747108459e-01 -6.7891162633895874e-01</leafValues></_>
        <_>
          <internalNodes>
            0 -1 116 -4.1364092612639070e-04</internalNodes>
          <leafValues>
            4.8488110303878784e-01 -2.4617159366607666e-01</leafValues></_>
        <_>
          <internalNodes>
            0 -1 95 1.4439929509535432e-03</internalNodes>
          <leafValues>
            1.7011520266532898e-01 -6.6601902246475220e-01</leafValues></_>
        <_>
          <internalNodes>
            0 -1 143 -2.4792023468762636e-03</internalNodes>
          <leafValues>
            5.0800436735153198e-01 -2.2912645339965820e-01</leafValues></_>
        <_>
          <internalNodes>
            0 -1 115 -1.8501947633922100e-03</internalNodes>
          <leafValues>
            1.6144356131553650e-01 -7.3046761751174927e-01</leafValues></_></weakClassifiers></_>
    <!-- stage 13 -->
    <_>
      <maxWeakCount>11</maxWeakCount>
      <stageThreshold>-9.5159614086151123e-01</stageThreshold>
      <weakClassifiers>
        <_>
          <internalNodes>
            0 -1 53 -4.0528408135287464e-04</internalNodes>
          <leafValues>
            -7.1515148878097534e-01 4.7932490706443787e-01</leafValues></_>
        <_>
          <internalNodes>
            0 -1 35 1.8217908218502998e-03</internalNodes>
          <leafValues>
            -5.0700658559799194e-01 3.2834216952323914e-01</leafValues></_>
        <_>
          <internalNodes>
            0 -1 106 -1.1876367032527924e-02</internalNodes>
          <leafValues>
            -6.9652098417282104e-01 2.0938722789287567e-01</leafValues></_>
        <_>
          <internalNodes>
            0 -1 34 1.2516742572188377e-03</internalNodes>
          <leafValues>
            -8.2533007860183716e-01 1.5347878634929657e-01</leafValues></_>
        <_>
          <internalNodes>
            0 -1 132 -9.0128101874142885e-04</internalNodes>
          <leafValues>
            1.2665309011936188e-01 -7.6874178647994995e-01</leafValues></_>
        <_>
          <internalNodes>
            0 -1 114 1.3733303057961166e-04</internalNodes>
          <leafValues>
            4.4213914871215820e-01 -3.1481155753135681e-01</leafValues></_>
        <_>
          <internalNodes>
            0 -1 94 1.8252411391586065e-03</internalNodes>
          <leafValues>
            -7.8476673364639282e-01 1.5881748497486115e-01</leafValues></_>
        <_>
          <internalNodes>
            0 -1 59 -1.3874545693397522e-03</internalNodes>
          <leafValues>
            -7.0170319080352783e-01 1.3892401754856110e-01</leafValues></_>
        <_>
          <internalNodes>
            0 -1 70 8.0040674656629562e-03</internalNodes>
          <leafValues>
            -3.0016028881072998e-01 3.8766381144523621e-01</leafValues></_>
        <_>
          <internalNodes>
            0 -1 145 -6.2460051849484444e-03</internalNodes>
          <leafValues>
            5.1694852113723755e-01 -2.2080212831497192e-01</leafValues></_>
        <_>
          <internalNodes>
            0 -1 85 6.5981192165054381e-05</internalNodes>
          <leafValues>
            -9.2251688241958618e-01 1.0340777784585953e-01</leafValues></_></weakClassifiers></_>
    <!-- stage 14 -->
    <_>
      <maxWeakCount>17</maxWeakCount>
      <stageThreshold>-1.2465476989746094e+00</stageThreshold>
      <weakClassifiers>
        <_>
          <internalNodes>
            0 -1 110 2.9504082631319761e-03</internalNodes>
          <leafValues>
            -4.9199083447456360e-01 4.9270880222320557e-01</leafValues></_>
        <_>
          <internalNodes>
            0 -1 19 6.6317769233137369e-04</internalNodes>
          <leafValues>
            -6.6636055707931519e-01 2.3302175104618073e-01</leafValues></_>
        <_>
          <internalNodes>
            0 -1 48 9.7335278987884521e-03</internalNodes>
          <leafValues>
            -6.5442097187042236e-01 1.8232446908950806e-01</leafValues></_>
        <_>
          <internalNodes>
            0 -1 134 2.2572171874344349e-03</internalNodes>
          <leafValues>
            -3.4589281678199768e-01 3.6349740624427795e-01</leafValues></_>
        <_>
          <internalNodes>
            0 -1 136 -4.2695384472608566e-03</internalNodes>
          <leafValues>
            6.8617206811904907e-01 -1.8724328279495239e-01</leafValues></_>
        <_>
          <internalNodes>
            0 -1 39 6.8787205964326859e-03</internalNodes>
          <leafValues>
            -7.8643810749053955e-01 1.4176529645919800e-01</leafValues></_>
        <_>
          <internalNodes>
            0 -1 56 1.0758021380752325e-03</internalNodes>
          <leafValues>
            1.4511920511722565e-01 -6.8862992525100708e-01</leafValues></_>
        <_>
          <internalNodes>
            0 -1 9 -1.0368143208324909e-02</internalNodes>
          <leafValues>
            6.3510257005691528e-01 -2.0386722683906555e-01</leafValues></_>
        <_>
          <internalNodes>
            0 -1 11 7.0887961192056537e-04</internalNodes>
          <leafValues>
            -2.2260838747024536e-01 4.6332365274429321e-01</leafValues></_>
        <_>
          <internalNodes>
            0 -1 105 5.5572425480931997e-05</internalNodes>
          <leafValues>
            -6.6060513257980347e-01 1.4638635516166687e-01</leafValues></_>
        <_>
          <internalNodes>
            0 -1 75 5.0431997515261173e-03</internalNodes>
          <leafValues>
            1.2496247887611389e-01 -7.4235069751739502e-01</leafValues></_>
        <_>
          <internalNodes>
            0 -1 31 2.3811710998415947e-03</internalNodes>
          <leafValues>
            -6.0428017377853394e-01 1.6575866937637329e-01</leafValues></_>
        <_>
          <internalNodes>
            0 -1 1 5.9280316345393658e-03</internalNodes>
          <leafValues>
            -1.8767707049846649e-01 6.3683432340621948e-01</leafValues></_>
        <_>
          <internalNodes>
            0 -1 15 1.4672698453068733e-03</internalNodes>
          <leafValues>
            -1.1406315863132477e-01 7.1493476629257202e-01</leafValues></_>
        <_>
          <internalNodes>
            0 -1 84 -3.7708242889493704e-03</internalNodes>
          <leafValues>
            -5.5221205949783325e-01 2.0237475633621216e-01</leafValues></_>
        <_>
          <internalNodes>
            0 -1 116 -2.5756511604413390e-04</internalNodes>
          <leafValues>
            4.0116012096405029e-01 -2.6384136080741882e-01</leafValues></_>
        <_>
          <internalNodes>
            0 -1 49 5.6844260543584824e-03</internalNodes>
          <leafValues>
            1.1364499479532242e-01 -8.7894999980926514e-01</leafValues></_></weakClassifiers></_>
    <!-- stage 15 -->
    <_>
      <maxWeakCount>15</maxWeakCount>
      <stageThreshold>-9.8323667049407959e-01</stageThreshold>
      <weakClassifiers>
        <_>
          <internalNodes>
            0 -1 121 6.7078876309096813e-03</internalNodes>
          <leafValues>
            -3.1578946113586426e-01 5.3748780488967896e-01</leafValues></_>
        <_>
          <internalNodes>
            0 -1 26 6.8638240918517113e-04</internalNodes>
          <leafValues>
            -5.8813345432281494e-01 2.4624954164028168e-01</leafValues></_>
        <_>
          <internalNodes>
            0 -1 25 6.0464558191597462e-03</internalNodes>
          <leafValues>
            -2.8190961480140686e-01 4.8246470093727112e-01</leafValues></_>
        <_>
          <internalNodes>
            0 -1 97 2.4322571698576212e-04</internalNodes>
          <leafValues>
            -6.5140473842620850e-01 1.7271642386913300e-01</leafValues></_>
        <_>
          <internalNodes>
            0 -1 65 -3.2041566446423531e-03</internalNodes>
          <leafValues>
            1.7767432332038879e-01 -6.1114895343780518e-01</leafValues></_>
        <_>
          <internalNodes>
            0 -1 91 4.6378867700695992e-03</internalNodes>
          <leafValues>
            -1.9495829939842224e-01 6.2902063131332397e-01</leafValues></_>
        <_>
          <internalNodes>
            0 -1 89 9.1385524719953537e-03</internalNodes>
          <leafValues>
            1.2754529714584351e-01 -7.4375027418136597e-01</leafValues></_>
        <_>
          <internalNodes>
            0 -1 4 3.7962452042847872e-03</internalNodes>
          <leafValues>
            -1.7778587341308594e-01 6.9669854640960693e-01</leafValues></_>
        <_>
          <internalNodes>
            0 -1 30 2.6984275318682194e-03</internalNodes>
          <leafValues>
            -9.8597019910812378e-01 1.3491499423980713e-01</leafValues></_>
        <_>
          <internalNodes>
            0 -1 5 2.3952075280249119e-03</internalNodes>
          <leafValues>
            -2.4139542877674103e-01 5.8626091480255127e-01</leafValues></_>
        <_>
          <internalNodes>
            0 -1 2 6.2230559997260571e-03</internalNodes>
          <leafValues>
            -1.5723808109760284e-01 7.0296782255172729e-01</leafValues></_>
        <_>
          <internalNodes>
            0 -1 33 8.2664303481578827e-03</internalNodes>
          <leafValues>
            1.5918487310409546e-01 -7.9321473836898804e-01</leafValues></_>
        <_>
          <internalNodes>
            0 -1 141 4.1369963437318802e-03</internalNodes>
          <leafValues>
            -2.2349587082862854e-01 5.6002533435821533e-01</leafValues></_>
        <_>
          <internalNodes>
            0 -1 108 -1.0340847074985504e-03</internalNodes>
          <leafValues>
            2.1715241670608521e-01 -5.1729661226272583e-01</leafValues></_>
        <_>
          <internalNodes>
            0 -1 74 -1.9366679480299354e-03</internalNodes>
          <leafValues>
            -8.6318081617355347e-01 1.0834714025259018e-01</leafValues></_></weakClassifiers></_>
    <!-- stage 16 -->
    <_>
      <maxWeakCount>13</maxWeakCount>
      <stageThreshold>-9.5194584131240845e-01</stageThreshold>
      <weakClassifiers>
        <_>
          <internalNodes>
            0 -1 144 2.8696208028122783e-04</internalNodes>
          <leafValues>
            -2.1126760169863701e-02 7.2656250000000000e-01</leafValues></_>
        <_>
          <internalNodes>
            0 -1 127 1.2086205184459686e-02</internalNodes>
          <leafValues>
            -3.3327421545982361e-01 4.2414733767509460e-01</leafValues></_>
        <_>
          <internalNodes>
            0 -1 24 -6.0709682293236256e-03</internalNodes>
          <leafValues>
            5.7301729917526245e-01 -2.4913221597671509e-01</leafValues></_>
        <_>
          <internalNodes>
            0 -1 64 1.6655807849019766e-03</internalNodes>
          <leafValues>
            -9.1381508111953735e-01 1.2927131354808807e-01</leafValues></_>
        <_>
          <internalNodes>
            0 -1 10 2.5677792727947235e-03</internalNodes>
          <leafValues>
            -2.5797736644744873e-01 5.5629932880401611e-01</leafValues></_>
        <_>
          <internalNodes>
            0 -1 46 2.2519985213875771e-03</internalNodes>
          <leafValues>
            -4.5354345440864563e-01 2.9814645648002625e-01</leafValues></_>
        <_>
          <internalNodes>
            0 -1 0 -1.7783611547201872e-03</internalNodes>
          <leafValues>
            6.0664981603622437e-01 -2.4064759910106659e-01</leafValues></_>
        <_>
          <internalNodes>
            0 -1 96 1.9803028553724289e-03</internalNodes>
          <leafValues>
            -6.2295061349868774e-01 2.2327345609664917e-01</leafValues></_>
        <_>
          <internalNodes>
            0 -1 122 -7.8530621249228716e-04</internalNodes>
          <leafValues>
            6.7066591978073120e-01 -2.1895678341388702e-01</leafValues></_>
        <_>
          <internalNodes>
            0 -1 125 9.4074034132063389e-04</internalNodes>
          <leafValues>
            -2.0119777321815491e-01 5.6647562980651855e-01</leafValues></_>
        <_>
          <internalNodes>
            0 -1 128 1.1782919755205512e-03</internalNodes>
          <leafValues>
            -4.9754026532173157e-01 3.0064103007316589e-01</leafValues></_>
        <_>
          <internalNodes>
            0 -1 3 -3.5697491839528084e-03</internalNodes>
          <leafValues>
            7.2932732105255127e-01 -1.8608108162879944e-01</leafValues></_>
        <_>
          <internalNodes>
            0 -1 146 -1.9786788616329432e-03</internalNodes>
          <leafValues>
            7.9438865184783936e-01 -1.4030185341835022e-01</leafValues></_></weakClassifiers></_>
    <!-- stage 17 -->
    <_>
      <maxWeakCount>10</maxWeakCount>
      <stageThreshold>-5.9314334392547607e-01</stageThreshold>
      <weakClassifiers>
        <_>
          <internalNodes>
            0 -1 124 -2.3826030083000660e-03</internalNodes>
          <leafValues>
            -5.5193483829498291e-01 5.3010410070419312e-01</leafValues></_>
        <_>
          <internalNodes>
            0 -1 137 -9.1546243056654930e-03</internalNodes>
          <leafValues>
            8.4209078550338745e-01 -2.6037016510963440e-01</leafValues></_>
        <_>
          <internalNodes>
            0 -1 41 6.2903640791773796e-03</internalNodes>
          <leafValues>
            -2.3294365406036377e-01 6.3773602247238159e-01</leafValues></_>
        <_>
          <internalNodes>
            0 -1 18 -2.0528178720269352e-04</internalNodes>
          <leafValues>
            -6.9692170619964600e-01 2.6685473322868347e-01</leafValues></_>
        <_>
          <internalNodes>
            0 -1 118 9.1146549675613642e-04</internalNodes>
          <leafValues>
            2.5197017192840576e-01 -6.1738228797912598e-01</leafValues></_>
        <_>
          <internalNodes>
            0 -1 103 -6.7428052425384521e-02</internalNodes>
          <leafValues>
            7.9172557592391968e-01 -2.1904927492141724e-01</leafValues></_>
        <_>
          <internalNodes>
            0 -1 120 1.2401390122249722e-03</internalNodes>
          <leafValues>
            -1.7902894318103790e-01 7.1735405921936035e-01</leafValues></_>
        <_>
          <internalNodes>
            0 -1 119 2.2426953364629298e-04</internalNodes>
          <leafValues>
            -3.5553544759750366e-01 4.2981147766113281e-01</leafValues></_>
        <_>
          <internalNodes>
            0 -1 14 2.0726379007101059e-03</internalNodes>
          <leafValues>
            -3.7777554988861084e-01 4.2153802514076233e-01</leafValues></_>
        <_>
          <internalNodes>
            0 -1 100 1.9401612225919962e-03</internalNodes>
          <leafValues>
            -6.8804049491882324e-01 2.3832547664642334e-01</leafValues></_></weakClassifiers></_></stages>
  <features>
    <_>
      <rects>
        <_>
          0 8 3 2 -1.</_>
        <_>
          1 8 1 2 3.</_></rects>
      <tilted>0</tilted></_>
    <_>
      <rects>
        <_>
          1 10 2 6 -1.</_>
        <_>
          1 12 2 2 3.</_></rects>
      <tilted>0</tilted></_>
    <_>
      <rects>
        <_>
          1 11 2 6 -1.</_>
        <_>
          1 13 2 2 3.</_></rects>
      <tilted>0</tilted></_>
    <_>
      <rects>
        <_>
          1 14 6 2 -1.</_>
        <_>
          1 14 3 1 2.</_>
        <_>
          4 15 3 1 2.</_></rects>
      <tilted>0</tilted></_>
    <_>
      <rects>
        <_>
          1 14 4 3 -1.</_>
        <_>
          1 15 4 1 3.</_></rects>
      <tilted>0</tilted></_>
    <_>
      <rects>
        <_>
          2 6 4 2 -1.</_>
        <_>
          2 6 2 1 2.</_>
        <_>
          4 7 2 1 2.</_></rects>
      <tilted>0</tilted></_>
    <_>
      <rects>
        <_>
          2 6 18 8 -1.</_>
        <_>
          8 6 6 8 3.</_></rects>
      <tilted>0</tilted></_>
    <_>
      <rects>
        <_>
          2 7 18 6 -1.</_>
        <_>
          8 7 6 6 3.</_></rects>
      <tilted>0</tilted></_>
    <_>
      <rects>
        <_>
          2 7 18 7 -1.</_>
        <_>
          8 7 6 7 3.</_></rects>
      <tilted>0</tilted></_>
    <_>
      <rects>
        <_>
          3 1 13 3 -1.</_>
        <_>
          3 2 13 1 3.</_></rects>
      <tilted>0</tilted></_>
    <_>
      <rects>
        <_>
          3 3 13 3 -1.</_>
        <_>
          3 4 13 1 3.</_></rects>
      <tilted>0</tilted></_>
    <_>
      <rects>
        <_>
          3 7 2 3 -1.</_>
        <_>
          3 8 2 1 3.</_></rects>
      <tilted>0</tilted></_>
    <_>
      <rects>
        <_>
          3 7 4 6 -1.</_>
        <_>
          5 7 2 6 2.</_></rects>
      <tilted>0</tilted></_>
    <_>
      <rects>
        <_>
          3 8 2 4 -1.</_>
        <_>
          4 8 1 4 2.</_></rects>
      <tilted>0</tilted></_>
    <_>
      <rects>
        <_>
          3 10 6 3 -1.</_>
        <_>
          5 10 2 3 3.</_></rects>
      <tilted>0</tilted></_>
    <_>
      <rects>
        <_>
          3 14 1 3 -1.</_>
        <_>
          3 15 1 1 3.</_></rects>
      <tilted>0</tilted></_>
    <_>
      <rects>
        <_>
          4 6 7 6 -1.</_>
        <_>
          4 8 7 2 3.</_></rects>
      <tilted>0</tilted></_>
    <_>
      <rects>
        <_>
          4 7 2 2 -1.</_>
        <_>
          5 7 1 2 2.</_></rects>
      <tilted>0</tilted></_>
    <_>
      <rects>
        <_>
          4 8 5 3 -1.</_>
        <_>
          4 9 5 1 3.</_></rects>
      <tilted>0</tilted></_>
    <_>
      <rects>
        <_>
          4 9 2 1 -1.</_>
        <_>
          5 9 1 1 2.</_></rects>
      <tilted>0</tilted></_>
    <_>
      <rects>
        <_>
          4 9 2 3 -1.</_>
        <_>
          5 9 1 3 2.</_></rects>
      <tilted>0</tilted></_>
    <_>
      <rects>
        <_>
          4 10 6 2 -1.</_>
        <_>
          6 10 2 2 3.</_></rects>
      <tilted>0</tilted></_>
    <_>
      <rects>
        <_>
          4 11 2 2 -1.</_>
        <_>
          5 11 1 2 2.</_></rects>
      <tilted>0</tilted></_>
    <_>
      <rects>
        <_>
          4 11 6 1 -1.</_>
        <_>
          6 11 2 1 3.</_></rects>
      <tilted>0</tilted></_>
    <_>
      <rects>
        <_>
          5 1 2 6 -1.</_>
        <_>
          5 3 2 2 3.</_></rects>
      <tilted>0</tilted></_>
    <_>
      <rects>
        <_>
          5 3 6 6 -1.</_>
        <_>
          5 5 6 2 3.</_></rects>
      <tilted>0</tilted></_>
    <_>
      <rects>
        <_>
          5 6 3 2 -1.</_>
        <_>
          5 7 3 1 2.</_></rects>
      <tilted>0</tilted></_>
    <_>
      <rects>
        <_>
          5 7 4 4 -1.</_>
        <_>
          5 7 2 2 2.</_>
        <_>
          7 9 2 2 2.</_></rects>
      <tilted>0</tilted></_>
    <_>
      <rects>
        <_>
          5 7 6 4 -1.</_>
        <_>
          5 7 3 2 2.</_>
        <_>
          8 9 3 2 2.</_></rects>
      <tilted>0</tilted></_>
    <_>
      <rects>
        <_>
          5 8 2 2 -1.</_>
        <_>
          6 8 1 2 2.</_></rects>
      <tilted>0</tilted></_>
    <_>
      <rects>
        <_>
          5 8 4 2 -1.</_>
        <_>
          7 8 2 2 2.</_></rects>
      <tilted>0</tilted></_>
    <_>
      <rects>
        <_>
          5 8 6 2 -1.</_>
        <_>
          7 8 2 2 3.</_></rects>
      <tilted>0</tilted></_>
    <_>
      <rects>
        <_>
          5 8 2 6 -1.</_>
        <_>
          5 10 2 2 3.</_></rects>
      <tilted>0</tilted></_>
    <_>
      <rects>
        <_>
          5 8 10 4 -1.</_>
        <_>
          5 8 5 2 2.</_>
        <_>
          10 10 5 2 2.</_></rects>
      <tilted>0</tilted></_>
    <_>
      <rects>
        <_>
          5 9 2 2 -1.</_>
        <_>
          6 9 1 2 2.</_></rects>
      <tilted>0</tilted></_>
    <_>
      <rects>
        <_>
          5 9 2 6 -1.</_>
        <_>
          5 11 2 2 3.</_></rects>
      <tilted>0</tilted></_>
    <_>
      <rects>
        <_>
          5 10 2 2 -1.</_>
        <_>
          6 10 1 2 2.</_></rects>
      <tilted>0</tilted></_>
    <_>
      <rects>
        <_>
          5 10 11 8 -1.</_>
        <_>
          5 14 11 4 2.</_></rects>
      <tilted>0</tilted></_>
    <_>
      <rects>
        <_>
          5 11 2 2 -1.</_>
        <_>
          6 11 1 2 2.</_></rects>
      <tilted>0</tilted></_>
    <_>
      <rects>
        <_>
          5 12 9 2 -1.</_>
        <_>
          8 12 3 2 3.</_></rects>
      <tilted>0</tilted></_>
    <_>
      <rects>
        <_>
          5 13 9 1 -1.</_>
        <_>
          8 13 3 1 3.</_></rects>
      <tilted>0</tilted></_>
    <_>
      <rects>
        <_>
          5 14 4 2 -1.</_>
        <_>
          7 14 2 2 2.</_></rects>
      <tilted>0</tilted></_>
    <_>
      <rects>
        <_>
          6 0 8 6 -1.</_>
        <_>
          6 2 8 2 3.</_></rects>
      <tilted>0</tilted></_>
    <_>
      <rects>
        <_>
          6 2 9 18 -1.</_>
        <_>
          6 8 9 6 3.</_></rects>
      <tilted>0</tilted></_>
    <_>
      <rects>
        <_>
          6 3 11 15 -1.</_>
        <_>
          6 8 11 5 3.</_></rects>
      <tilted>0</tilted></_>
    <_>
      <rects>
        <_>
          6 4 9 6 -1.</_>
        <_>
          6 6 9 2 3.</_></rects>
      <tilted>0</tilted></_>
    <_>
      <rects>
        <_>
          6 5 2 6 -1.</_>
        <_>
          6 7 2 2 3.</_></rects>
      <tilted>0</tilted></_>
    <_>
      <rects>
        <_>
          6 5 4 6 -1.</_>
        <_>
          6 7 4 2 3.</_></rects>
      <tilted>0</tilted></_>
    <_>
      <rects>
        <_>
          6 5 10 6 -1.</_>
        <_>
          6 7 10 2 3.</_></rects>
      <tilted>0</tilted></_>
    <_>
      <rects>
        <_>
          6 6 3 6 -1.</_>
        <_>
          7 6 1 6 3.</_></rects>
      <tilted>0</tilted></_>
    <_>
      <rects>
        <_>
          6 6 3 6 -1.</_>
        <_>
          6 8 3 2 3.</_></rects>
      <tilted>0</tilted></_>
    <_>
      <rects>
        <_>
          6 7 4 4 -1.</_>
        <_>
          6 7 2 2 2.</_>
        <_>
          8 9 2 2 2.</_></rects>
      <tilted>0</tilted></_>
    <_>
      <rects>
        <_>
          6 7 4 6 -1.</_>
        <_>
          6 7 2 3 2.</_>
        <_>
          8 10 2 3 2.</_></rects>
      <tilted>0</tilted></_>
    <_>
      <rects>
        <_>
          6 7 9 3 -1.</_>
        <_>
          6 8 9 1 3.</_></rects>
      <tilted>0</tilted></_>
    <_>
      <rects>
        <_>
          6 8 2 1 -1.</_>
        <_>
          7 8 1 1 2.</_></rects>
      <tilted>0</tilted></_>
    <_>
      <rects>
        <_>
          6 8 2 5 -1.</_>
        <_>
          7 8 1 5 2.</_></rects>
      <tilted>0</tilted></_>
    <_>
      <rects>
        <_>
          6 8 4 4 -1.</_>
        <_>
          6 8 2 2 2.</_>
        <_>
          8 10 2 2 2.</_></rects>
      <tilted>0</tilted></_>
    <_>
      <rects>
        <_>
          6 8 4 6 -1.</_>
        <_>
          6 8 2 3 2.</_>
        <_>
          8 11 2 3 2.</_></rects>
      <tilted>0</tilted></_>
    <_>
      <rects>
        <_>
          6 9 6 2 -1.</_>
        <_>
          8 9 2 2 3.</_></rects>
      <tilted>0</tilted></_>
    <_>
      <rects>
        <_>
          6 9 4 4 -1.</_>
        <_>
          6 9 2 2 2.</_>
        <_>
          8 11 2 2 2.</_></rects>
      <tilted>0</tilted></_>
    <_>
      <rects>
        <_>
          6 9 9 6 -1.</_>
        <_>
          6 11 9 2 3.</_></rects>
      <tilted>0</tilted></_>
    <_>
      <rects>
        <_>
          6 10 6 2 -1.</_>
        <_>
          8 10 2 2 3.</_></rects>
      <tilted>0</tilted></_>
    <_>
      <rects>
        <_>
          6 10 3 6 -1.</_>
        <_>
          6 12 3 2 3.</_></rects>
      <tilted>0</tilted></_>
    <_>
      <rects>
        <_>
          6 11 2 2 -1.</_>
        <_>
          7 11 1 2 2.</_></rects>
      <tilted>0</tilted></_>
    <_>
      <rects>
        <_>
          6 11 6 2 -1.</_>
        <_>
          8 11 2 2 3.</_></rects>
      <tilted>0</tilted></_>
    <_>
      <rects>
        <_>
          6 12 2 4 -1.</_>
        <_>
          6 14 2 2 2.</_></rects>
      <tilted>0</tilted></_>
    <_>
      <rects>
        <_>
          6 12 6 2 -1.</_>
        <_>
          8 12 2 2 3.</_></rects>
      <tilted>0</tilted></_>
    <_>
      <rects>
        <_>
          6 13 9 1 -1.</_>
        <_>
          9 13 3 1 3.</_></rects>
      <tilted>0</tilted></_>
    <_>
      <rects>
        <_>
          7 0 7 6 -1.</_>
        <_>
          7 2 7 2 3.</_></rects>
      <tilted>0</tilted></_>
    <_>
      <rects>
        <_>
          7 3 2 9 -1.</_>
        <_>
          7 6 2 3 3.</_></rects>
      <tilted>0</tilted></_>
    <_>
      <rects>
        <_>
          7 3 5 6 -1.</_>
        <_>
          7 5 5 2 3.</_></rects>
      <tilted>0</tilted></_>
    <_>
      <rects>
        <_>
          7 3 7 9 -1.</_>
        <_>
          7 6 7 3 3.</_></rects>
      <tilted>0</tilted></_>
    <_>
      <rects>
        <_>
          7 6 2 9 -1.</_>
        <_>
          7 9 2 3 3.</_></rects>
      <tilted>0</tilted></_>
    <_>
      <rects>
        <_>
          7 6 6 8 -1.</_>
        <_>
          7 6 3 4 2.</_>
        <_>
          10 10 3 4 2.</_></rects>
      <tilted>0</tilted></_>
    <_>
      <rects>
        <_>
          7 7 2 6 -1.</_>
        <_>
          7 7 1 3 2.</_>
        <_>
          8 10 1 3 2.</_></rects>
      <tilted>0</tilted></_>
    <_>
      <rects>
        <_>
          7 7 3 7 -1.</_>
        <_>
          8 7 1 7 3.</_></rects>
      <tilted>0</tilted></_>
    <_>
      <rects>
        <_>
          7 7 4 6 -1.</_>
        <_>
          7 7 2 3 2.</_>
        <_>
          9 10 2 3 2.</_></rects>
      <tilted>0</tilted></_>
    <_>
      <rects>
        <_>
          7 7 3 6 -1.</_>
        <_>
          7 9 3 2 3.</_></rects>
      <tilted>0</tilted></_>
    <_>
      <rects>
        <_>
          7 8 2 1 -1.</_>
        <_>
          8 8 1 1 2.</_></rects>
      <tilted>0</tilted></_>
    <_>
      <rects>
        <_>
          7 8 2 6 -1.</_>
        <_>
          7 8 1 3 2.</_>
        <_>
          8 11 1 3 2.</_></rects>
      <tilted>0</tilted></_>
    <_>
      <rects>
        <_>
          7 8 2 6 -1.</_>
        <_>
          7 10 2 2 3.</_></rects>
      <tilted>0</tilted></_>
    <_>
      <rects>
        <_>
          7 8 4 6 -1.</_>
        <_>
          7 8 2 3 2.</_>
        <_>
          9 11 2 3 2.</_></rects>
      <tilted>0</tilted></_>
    <_>
      <rects>
        <_>
          7 8 12 4 -1.</_>
        <_>
          11 8 4 4 3.</_></rects>
      <tilted>0</tilted></_>
    <_>
      <rects>
        <_>
          7 9 2 6 -1.</_>
        <_>
          7 11 2 2 3.</_></rects>
      <tilted>0</tilted></_>
    <_>
      <rects>
        <_>
          7 9 12 2 -1.</_>
        <_>
          7 10 12 1 2.</_></rects>
      <tilted>0</tilted></_>
    <_>
      <rects>
        <_>
          7 10 2 1 -1.</_>
        <_>
          8 10 1 1 2.</_></rects>
      <tilted>0</tilted></_>
    <_>
      <rects>
        <_>
          7 10 9 2 -1.</_>
        <_>
          10 10 3 2 3.</_></rects>
      <tilted>0</tilted></_>
    <_>
      <rects>
        <_>
          7 11 6 1 -1.</_>
        <_>
          9 11 2 1 3.</_></rects>
      <tilted>0</tilted></_>
    <_>
      <rects>
        <_>
          7 11 6 2 -1.</_>
        <_>
          9 11 2 2 3.</_></rects>
      <tilted>0</tilted></_>
    <_>
      <rects>
        <_>
          7 11 8 4 -1.</_>
        <_>
          7 11 4 2 2.</_>
        <_>
          11 13 4 2 2.</_></rects>
      <tilted>0</tilted></_>
    <_>
      <rects>
        <_>
          7 12 9 2 -1.</_>
        <_>
          10 12 3 2 3.</_></rects>
      <tilted>0</tilted></_>
    <_>
      <rects>
        <_>
          7 17 6 3 -1.</_>
        <_>
          7 18 6 1 3.</_></rects>
      <tilted>0</tilted></_>
    <_>
      <rects>
        <_>
          8 7 4 6 -1.</_>
        <_>
          8 7 2 3 2.</_>
        <_>
          10 10 2 3 2.</_></rects>
      <tilted>0</tilted></_>
    <_>
      <rects>
        <_>
          8 7 9 1 -1.</_>
        <_>
          11 7 3 1 3.</_></rects>
      <tilted>0</tilted></_>
    <_>
      <rects>
        <_>
          8 8 2 6 -1.</_>
        <_>
          8 10 2 2 3.</_></rects>
      <tilted>0</tilted></_>
    <_>
      <rects>
        <_>
          8 9 2 6 -1.</_>
        <_>
          8 9 1 3 2.</_>
        <_>
          9 12 1 3 2.</_></rects>
      <tilted>0</tilted></_>
    <_>
      <rects>
        <_>
          8 9 2 6 -1.</_>
        <_>
          8 11 2 2 3.</_></rects>
      <tilted>0</tilted></_>
    <_>
      <rects>
        <_>
          8 10 2 2 -1.</_>
        <_>
          9 10 1 2 2.</_></rects>
      <tilted>0</tilted></_>
    <_>
      <rects>
        <_>
          8 11 2 2 -1.</_>
        <_>
          9 11 1 2 2.</_></rects>
      <tilted>0</tilted></_>
    <_>
      <rects>
        <_>
          8 11 6 2 -1.</_>
        <_>
          11 11 3 2 2.</_></rects>
      <tilted>0</tilted></_>
    <_>
      <rects>
        <_>
          8 12 6 3 -1.</_>
        <_>
          10 12 2 3 3.</_></rects>
      <tilted>0</tilted></_>
    <_>
      <rects>
        <_>
          8 12 3 2 -1.</_>
        <_>
          8 13 3 1 2.</_></rects>
      <tilted>0</tilted></_>
    <_>
      <rects>
        <_>
          8 13 6 2 -1.</_>
        <_>
          10 13 2 2 3.</_></rects>
      <tilted>0</tilted></_>
    <_>
      <rects>
        <_>
          9 0 5 9 -1.</_>
        <_>
          9 3 5 3 3.</_></rects>
      <tilted>0</tilted></_>
    <_>
      <rects>
        <_>
          9 7 9 7 -1.</_>
        <_>
          12 7 3 7 3.</_></rects>
      <tilted>0</tilted></_>
    <_>
      <rects>
        <_>
          9 13 6 1 -1.</_>
        <_>
          11 13 2 1 3.</_></rects>
      <tilted>0</tilted></_>
    <_>
      <rects>
        <_>
          10 8 4 7 -1.</_>
        <_>
          12 8 2 7 2.</_></rects>
      <tilted>0</tilted></_>
    <_>
      <rects>
        <_>
          10 8 5 6 -1.</_>
        <_>
          10 10 5 2 3.</_></rects>
      <tilted>0</tilted></_>
    <_>
      <rects>
        <_>
          10 9 4 3 -1.</_>
        <_>
          12 9 2 3 2.</_></rects>
      <tilted>0</tilted></_>
    <_>
      <rects>
        <_>
          10 9 6 2 -1.</_>
        <_>
          13 9 3 2 2.</_></rects>
      <tilted>0</tilted></_>
    <_>
      <rects>
        <_>
          10 10 4 6 -1.</_>
        <_>
          10 12 4 2 3.</_></rects>
      <tilted>0</tilted></_>
    <_>
      <rects>
        <_>
          10 10 5 2 -1.</_>
        <_>
          10 11 5 1 2.</_></rects>
      <tilted>0</tilted></_>
    <_>
      <rects>
        <_>
          10 10 5 6 -1.</_>
        <_>
          10 12 5 2 3.</_></rects>
      <tilted>0</tilted></_>
    <_>
      <rects>
        <_>
          11 6 6 4 -1.</_>
        <_>
          11 6 3 2 2.</_>
        <_>
          14 8 3 2 2.</_></rects>
      <tilted>0</tilted></_>
    <_>
      <rects>
        <_>
          11 7 3 4 -1.</_>
        <_>
          12 7 1 4 3.</_></rects>
      <tilted>0</tilted></_>
    <_>
      <rects>
        <_>
          11 8 4 4 -1.</_>
        <_>
          13 8 2 4 2.</_></rects>
      <tilted>0</tilted></_>
    <_>
      <rects>
        <_>
          11 9 3 1 -1.</_>
        <_>
          12 9 1 1 3.</_></rects>
      <tilted>0</tilted></_>
    <_>
      <rects>
        <_>
          11 9 4 4 -1.</_>
        <_>
          11 11 4 2 2.</_></rects>
      <tilted>0</tilted></_>
    <_>
      <rects>
        <_>
          11 9 5 2 -1.</_>
        <_>
          11 10 5 1 2.</_></rects>
      <tilted>0</tilted></_>
    <_>
      <rects>
        <_>
          11 10 2 4 -1.</_>
        <_>
          11 10 1 2 2.</_>
        <_>
          12 12 1 2 2.</_></rects>
      <tilted>0</tilted></_>
    <_>
      <rects>
        <_>
          11 10 3 3 -1.</_>
        <_>
          12 10 1 3 3.</_></rects>
      <tilted>0</tilted></_>
    <_>
      <rects>
        <_>
          12 6 6 8 -1.</_>
        <_>
          14 6 2 8 3.</_></rects>
      <tilted>0</tilted></_>
    <_>
      <rects>
        <_>
          12 7 2 4 -1.</_>
        <_>
          12 7 1 2 2.</_>
        <_>
          13 9 1 2 2.</_></rects>
      <tilted>0</tilted></_>
    <_>
      <rects>
        <_>
          12 7 4 3 -1.</_>
        <_>
          14 7 2 3 2.</_></rects>
      <tilted>0</tilted></_>
    <_>
      <rects>
        <_>
          12 7 4 6 -1.</_>
        <_>
          12 7 2 3 2.</_>
        <_>
          14 10 2 3 2.</_></rects>
      <tilted>0</tilted></_>
    <_>
      <rects>
        <_>
          12 9 3 1 -1.</_>
        <_>
          13 9 1 1 3.</_></rects>
      <tilted>0</tilted></_>
    <_>
      <rects>
        <_>
          12 9 6 5 -1.</_>
        <_>
          14 9 2 5 3.</_></rects>
      <tilted>0</tilted></_>
    <_>
      <rects>
        <_>
          12 9 3 9 -1.</_>
        <_>
          12 12 3 3 3.</_></rects>
      <tilted>0</tilted></_>
    <_>
      <rects>
        <_>
          12 10 6 1 -1.</_>
        <_>
          14 10 2 1 3.</_></rects>
      <tilted>0</tilted></_>
    <_>
      <rects>
        <_>
          12 10 6 2 -1.</_>
        <_>
          14 10 2 2 3.</_></rects>
      <tilted>0</tilted></_>
    <_>
      <rects>
        <_>
          12 10 4 6 -1.</_>
        <_>
          12 12 4 2 3.</_></rects>
      <tilted>0</tilted></_>
    <_>
      <rects>
        <_>
          12 11 4 4 -1.</_>
        <_>
          12 11 2 2 2.</_>
        <_>
          14 13 2 2 2.</_></rects>
      <tilted>0</tilted></_>
    <_>
      <rects>
        <_>
          12 13 3 2 -1.</_>
        <_>
          12 14 3 1 2.</_></rects>
      <tilted>0</tilted></_>
    <_>
      <rects>
        <_>
          13 10 6 3 -1.</_>
        <_>
          15 10 2 3 3.</_></rects>
      <tilted>0</tilted></_>
    <_>
      <rects>
        <_>
          13 11 6 1 -1.</_>
        <_>
          15 11 2 1 3.</_></rects>
      <tilted>0</tilted></_>
    <_>
      <rects>
        <_>
          13 12 4 2 -1.</_>
        <_>
          15 12 2 2 2.</_></rects>
      <tilted>0</tilted></_>
    <_>
      <rects>
        <_>
          13 16 3 3 -1.</_>
        <_>
          13 17 3 1 3.</_></rects>
      <tilted>0</tilted></_>
    <_>
      <rects>
        <_>
          14 1 4 6 -1.</_>
        <_>
          14 1 2 3 2.</_>
        <_>
          16 4 2 3 2.</_></rects>
      <tilted>0</tilted></_>
    <_>
      <rects>
        <_>
          14 5 2 12 -1.</_>
        <_>
          14 9 2 4 3.</_></rects>
      <tilted>0</tilted></_>
    <_>
      <rects>
        <_>
          14 7 4 7 -1.</_>
        <_>
          16 7 2 7 2.</_></rects>
      <tilted>0</tilted></_>
    <_>
      <rects>
        <_>
          14 9 6 2 -1.</_>
        <_>
          16 9 2 2 3.</_></rects>
      <tilted>0</tilted></_>
    <_>
      <rects>
        <_>
          14 14 6 2 -1.</_>
        <_>
          14 14 3 1 2.</_>
        <_>
          17 15 3 1 2.</_></rects>
      <tilted>0</tilted></_>
    <_>
      <rects>
        <_>
          15 3 1 15 -1.</_>
        <_>
          15 8 1 5 3.</_></rects>
      <tilted>0</tilted></_>
    <_>
      <rects>
        <_>
          15 6 4 2 -1.</_>
        <_>
          15 6 2 1 2.</_>
        <_>
          17 7 2 1 2.</_></rects>
      <tilted>0</tilted></_>
    <_>
      <rects>
        <_>
          15 7 2 2 -1.</_>
        <_>
          15 7 1 1 2.</_>
        <_>
          16 8 1 1 2.</_></rects>
      <tilted>0</tilted></_>
    <_>
      <rects>
        <_>
          17 8 2 4 -1.</_>
        <_>
          18 8 1 4 2.</_></rects>
      <tilted>0</tilted></_>
    <_>
      <rects>
        <_>
          18 10 2 1 -1.</_>
        <_>
          19 10 1 1 2.</_></rects>
      <tilted>0</tilted></_></features></cascade>
</opencv_storage>
